{
  "variant": "3class",
  "model_type": "one-vs-rest linear SVM trained with NumPy SGD",
  "feature_columns": [
    "mean",
    "std",
    "min",
    "max",
    "median",
    "range",
    "energy",
    "rms",
    "skewness",
    "kurtosis"
  ],
  "class_order": [
    "baseline",
    "stress",
    "amusement"
  ],
  "train_subjects": [
    "S2",
    "S3",
    "S4",
    "S5",
    "S6",
    "S7",
    "S8",
    "S9",
    "S10",
    "S11"
  ],
  "test_subjects": [
    "S13",
    "S14",
    "S15",
    "S16",
    "S17"
  ],
  "num_train_samples": 2157,
  "num_test_samples": 1099,
  "standardization_mean": [
    0.0014468024471788895,
    44.976169908689265,
    -179.85124187139914,
    165.21035640695226,
    3.2400341312322967,
    345.0615982783513,
    4622538.332428871,
    44.97982634318147,
    -0.24729718293702488,
    3.4523605330575546
  ],
  "standardization_std": [
    0.7163323613941491,
    39.849580655378944,
    184.6096232946026,
    169.6034433765839,
    3.7050785046280295,
    345.2424077735687,
    10136125.426645128,
    39.851891979519536,
    0.7131348556126272,
    5.7394565000702364
  ],
  "weights": [
    [
      -0.10644132967437864,
      -0.34284452759402173,
      -0.2331903083484187,
      0.7580428076541668,
      1.2014181758140248,
      0.49708796347438494,
      -0.9667985961264017,
      -0.3400178302442353,
      0.03437049362588174,
      -0.3066820432342204
    ],
    [
      0.16210269262797095,
      0.783812935449422,
      0.21524030538045785,
      -0.7706268180227781,
      -1.3473056989809824,
      -0.493671663015659,
      0.30626816162984305,
      0.7824497699749152,
      0.07492879265039165,
      0.23711862522215196
    ],
    [
      -0.0019983639036104278,
      -0.002681835363537068,
      0.0003026841375852212,
      0.007011452451832848,
      -0.003973792505259718,
      0.003282586521145451,
      -0.024317302304239705,
      -0.005555319581151688,
      -0.013099260300534906,
      -0.004169467504514029
    ]
  ],
  "biases": [
    0.0909419122479426,
    -0.9325328669448656,
    -1.0193299422725282
  ]
}